digraph Tree {
node [shape=box] ;
rankdir=LR ;
0 [label="Sex <= 0.5\ngini = 0.499\nsamples = 25\nvalue = [12, 13]"] ;
1 [label="Age <= 25.0\ngini = 0.32\nsamples = 10\nvalue = [8, 2]"] ;
0 -> 1 [labeldistance=2.5, labelangle=-45, headlabel="True"] ;
2 [label="gini = 0.0\nsamples = 5\nvalue = [5, 0]"] ;
1 -> 2 ;
3 [label="Age <= 34.5\ngini = 0.48\nsamples = 5\nvalue = [3, 2]"] ;
1 -> 3 ;
4 [label="gini = 0.0\nsamples = 2\nvalue = [0, 2]"] ;
3 -> 4 ;
5 [label="gini = 0.0\nsamples = 3\nvalue = [3, 0]"] ;
3 -> 5 ;
6 [label="SiblingSpouse <= 1.5\ngini = 0.391\nsamples = 15\nvalue = [4, 11]"] ;
0 -> 6 [labeldistance=2.5, labelangle=45, headlabel="False"] ;
7 [label="PassengerId <= 32.0\ngini = 0.26\nsamples = 13\nvalue = [2, 11]"] ;
6 -> 7 ;
8 [label="gini = 0.0\nsamples = 9\nvalue = [0, 9]"] ;
7 -> 8 ;
9 [label="AgeGrp <= 0.5\ngini = 0.5\nsamples = 4\nvalue = [2, 2]"] ;
7 -> 9 ;
10 [label="gini = 0.0\nsamples = 1\nvalue = [0, 1]"] ;
9 -> 10 ;
11 [label="Age <= 38.0\ngini = 0.444\nsamples = 3\nvalue = [2, 1]"] ;
9 -> 11 ;
12 [label="gini = 0.0\nsamples = 2\nvalue = [2, 0]"] ;
11 -> 12 ;
13 [label="gini = 0.0\nsamples = 1\nvalue = [0, 1]"] ;
11 -> 13 ;
14 [label="gini = 0.0\nsamples = 2\nvalue = [2, 0]"] ;
6 -> 14 ;
}